encog,BasicNetwork,java,3.3.0,1,1446096621004
[BASIC]
[BASIC:PARAMS]
[BASIC:NETWORK]
beginTraining=0
connectionLimit=0
contextTargetOffset=0,0,0,0
contextTargetSize=0,0,0,0
endTraining=3
hasContext=f
inputCount=8
layerCounts=6,11,14,9
layerFeedCounts=6,10,13,8
layerContextCount=0,0,0,0
layerIndex=0,6,17,31
output=0,0,0,0,0,0,0,0,0,0,0,0,0,0,0,0,1,0,0,0,0,0,0,0,0,0,0,0,0,0,1,0,0,0,0,0,0,0,0,1
outputCount=6
weightIndex=0,66,206,323
weights=-4.9390611143,-0.2546794981,1.8475944541,3.5617988048,5.1673611034,-2.3474386578,-3.0757142791,-0.8558633025,-7.9214675109,-1.7023762644,0.9206632602,1.3042691114,1.3667156936,0.4723204626,0.1871644078,0.3927396399,0.7926958389,0.0068827728,1.6808461452,0.3445950562,-0.4539331631,2.2935830973,-0.708684039,2.7416040126,0.1565424604,-2.6291991626,-2.0724416382,1.4363646846,-2.7800578223,-4.0898683107,1.1742792773,-1.6874796509,-1.9118747814,4.4745788127,1.0930995708,-0.1688983044,-4.4286334637,-1.1311473647,1.9859979969,1.9300194431,2.1819867541,-7.1752501065,-6.1680759224,1.5662864282,1.3387384313,3.0209936586,-1.9339777481,-5.5025613463,-3.5894079237,-1.8338823877,2.7836976318,-2.5988481866,4.1621828885,0.8073450145,-0.8596990775,1.4006226334,-5.6392995184,-8.4293743613,-1.0025056714,-2.2877103221,-3.2627881781,5.3215777139,0.8631715148,1.5053344806,2.0814149482,0.4200156948,0.9581534471,1.8647900735,0.9246745511,-0.5967359939,-0.1945269999,1.5043252322,1.4989957219,-0.61849407,0.9222780592,2.5264684094,0.5452753337,-1.0767597907,-0.4143588982,-0.3749581663,0.1434325882,0.5127964778,1.2773874384,-1.466625739,-2.1258900304,-1.007290097,1.0912516814,4.4474838182,0.6655023337,-0.165893794,-0.7050308164,0.2818471381,-1.0214152634,-2.2607586696,-0.8093600436,-0.6436794985,2.5061271908,2.1580650372,-1.5757170485,-2.7574661266,-3.159275798,5.8252127292,1.1496474205,-0.6560649687,1.4085157325,1.2137847669,0.4774805904,0.9635818538,-1.9391083505,-1.3338110819,0.3847575543,2.262354484,2.3339550262,-1.4227599652,-2.8186573809,0.3462221797,-0.2351997797,-2.4097850921,1.2565716626,0.6417293717,0.6022552328,0.3924561924,-0.4807802394,-2.6131629396,0.4897352997,1.631991561,1.2247083582,-0.1980030033,-2.2490449206,0.5575484399,0.4087844671,-2.4659890545,0.8158238454,1.4973359907,0.0298390304,0.7332578829,-0.2922641773,1.0473931174,-0.2088739383,0.7128587693,-1.7147745285,-1.8289164492,-1.0874971104,1.2597889316,1.5571705227,0.7823200177,1.9999282225,-0.2665328987,-0.9179050715,-0.7336421843,-0.4476773232,1.1853213124,-1.4181969698,-1.7571561564,0.8286215175,1.7273189462,2.0094141363,-3.2431113464,0.005891916,0.9208544184,-1.3651557966,-1.0671580697,-0.9112329202,-0.7071095138,-0.6220473629,1.3375219018,-1.6086000077,0.8197911318,0.9249208161,1.143239261,-1.647488026,-1.8947346181,0.7170636571,1.3774457746,0.3604384642,-0.2992063256,-0.085209944,0.4243161274,1.3872857177,9.2640093438,0.9557160491,-1.9739881821,-3.101812889,1.6573305354,3.0377800548,-1.0036378908,1.3076878285,7.2550335124,-0.7105407059,-2.1320758069,-1.808253643,-2.6842653947,2.1970212122,0.7116184006,1.767603215,-3.7610616297,-0.8244423096,-1.9044410004,0.8716434578,-1.6030947721,-1.7075816721,0.3986224523,0.0286978821,-2.4393600708,-0.7541784264,0.2936478712,-0.0318486547,0.8816729624,-0.1610132179,-0.624766264,-0.3861692847,2.7499962672,0.025642145,-1.3363626003,-0.6918740385,0.1204045775,6.1213424854,-0.1234816136,-6.1046093881,-0.0187737515,5.6620976521,-0.0188397643,0.1503853541,0.2571319793,1.8564880519,0.5058832521,-2.3934468802,-0.6968754684,-0.4629719796,1.6241629751,-0.1216960284,-1.4830346696,-0.5371608968,0.7008065725,0.7256320183,-0.4147225363,0.2197169759,-0.1050083043,-4.1578778452,0.3309490587,1.3012057366,1.1316699205,-1.8917602131,-1.8027735234,1.832757361,1.9163663509,0.1084867407,-1.3528841526,0.1306278312,-0.03122634,0.2601999498,-1.7923007602,0.5252692996,0.8690464216,-0.705815335,-0.1960582937,2.4845979349,-0.3985143876,1.1455680832,-2.0746492181,-0.137266846,1.3465001333,0.0113607145,-1.1212389949,0.0935392035,4.7077068062,0.0461150986,0.4997083335,-1.7647180902,5.8501083374,-0.524211774,-6.0254376725,0.4822092607,-0.6462338661,1.0965303359,-0.0690320528,0.3131408352,-0.9672671733,1.252083378,1.3131086601,-0.8548121012,-1.7668850359,-0.1645607508,0.0954583261,0.2536005092,1.3837534164,-0.1607514684,-0.2440004184,4.893961523,0.2364296153,-4.7574167775,0.0246730437,4.9103012669,0.0194216279,0.0988096486,0.1878035099,0.3217355023,0.9696403186,-0.7952464816,-0.2822484479,-0.0077609234,-2.1468084959,-0.30970251,-0.5776915719,1.0978161751,0.6296952162,-1.112320759,-1.2531786374,0.712123199,-0.2898906708,-1.8568391321,-0.3805617599,1.4367984452,0.8383644613,0.8563076741,0.1136138704,1.071318532,0.664333173,-0.0294805407,0.3899259049,1.1389750585,0.0075668091,1.2938944995
biasActivation=0,1,1,1
[BASIC:ACTIVATION]
"org.encog.engine.network.activation.ActivationSigmoid"
"org.encog.engine.network.activation.ActivationSigmoid"
"org.encog.engine.network.activation.ActivationSigmoid"
"org.encog.engine.network.activation.ActivationLinear"
