encog,BasicNetwork,java,3.3.0,1,1444396685292
[BASIC]
[BASIC:PARAMS]
[BASIC:NETWORK]
beginTraining=0
connectionLimit=0
contextTargetOffset=0,0,0,0
contextTargetSize=0,0,0,0
endTraining=3
hasContext=f
inputCount=7
layerCounts=6,20,21,8
layerFeedCounts=6,20,20,7
layerContextCount=0,0,0,0
layerIndex=0,6,26,47
output=0,0,0,0,0,0,0,0,0,0,0,0,0,0,0,0,0,0,0,0,0,0,0,0,0,0,0,0,0,0,0,0,0,0,0,0,0,0,0,0,0,0,0,0,0,0,1,0,0,0,0,0,0,0,1
outputCount=6
weightIndex=0,120,540,700
weights=0.0168836507,-1.3709707874,1.5625150987,-0.4424165411,2.061231786,-1.6050411345,-3.9281976122,-1.5853048849,-1.4517976314,1.5971609033,0.3377375041,-0.1346536624,-0.2979474417,-2.1335242988,0.624087765,-4.8289447428,-1.5941289832,2.6983529765,0.0999120108,-0.477459935,0.7906973868,-0.5047424425,0.3023398178,-0.5769084576,-0.1324382098,0.177408853,1.0438751149,0.2905753953,0.5275813177,0.1189987902,0.373869485,0.585768358,-0.2722470588,-0.121176584,0.2413488844,1.4524038365,0.9204870091,1.6419610153,1.5318593775,-0.045220236,-1.7673033484,-1.0949181036,0.2280218254,1.4517646954,-1.2402384183,0.0584990803,0.2901623417,-2.428485693,2.1139586649,-0.6455458699,-1.1381011032,-0.4163151238,0.7473930125,-1.4448670905,-0.4931046008,0.2136749737,0.3002093235,-0.3303183052,-0.9468774866,-0.7303999541,-1.2547215846,-1.2923226212,1.0981611128,-1.7969528779,1.1687799617,0.6217046373,-1.4031215818,0.2509171598,-0.5337826953,-1.0868439988,-0.0586890288,0.7793602391,0.3586540124,0.6356273959,0.1576377025,-0.9485115989,-0.7859420288,-0.9888130335,0.2710027835,0.5707886304,0.2377013342,1.2150741532,-1.21469358,1.7729558828,-2.8243645455,-0.3346541768,0.5889234606,0.9026367322,1.9802176216,-1.7521214084,-0.7248945265,-0.5830654975,0.6799470873,-0.1183311405,0.7158170892,0.8456375312,3.2487749256,-0.5518321368,-1.0692946245,0.2844036472,0.8498124511,1.9185251693,-3.5529796422,-1.499931645,-0.1515654096,-0.1498457783,1.7413453851,3.9793469779,-2.0307183923,-2.2660873046,0.5262048902,-3.6291276869,0.7070359293,0.9865055676,1.4071769102,-1.3856413309,0.8936816141,-0.1815649922,-2.0148455192,0.4216833419,0.5895263136,-0.6555133327,-0.0542125663,-0.3235052656,0.3208617908,0.7353866516,0.6701268433,0.1071538353,-0.4988493355,0.5719371412,0.9950503642,0.2408396,-0.8822033801,0.3005804893,0.3885120445,-0.3750923054,-1.5316730986,0.4251985597,-0.3241648894,-0.4993720219,0.6908595796,0.7249538209,-1.2562933516,0.8630845455,-0.4588569041,-0.2414346406,-1.3269651136,1.1647285116,-0.6074838701,-0.4419429504,0.5090787541,0.7655305769,-1.3952920246,-1.1606044354,-0.8885431828,-0.3801315242,-0.8659612055,0.3793040015,0.3918194692,0.2873012382,-0.5546226615,0.0283057625,-0.6786114493,0.725260098,-0.4542458603,1.2459733573,-0.0644013213,1.7239829837,-1.203538207,-0.1959287371,1.2558530933,-0.7004091906,-1.3491940162,0.3526173467,1.4366455825,1.5550443496,1.5895823281,0.1921160335,1.2946117065,0.4162469406,-0.3324703919,0.5112490948,-0.7163266573,-0.0606231521,1.056006376,0.9555694505,-1.0537150871,-0.8971968723,0.037684286,-0.090678467,0.821364526,1.4390701104,0.4618691285,-1.7781386561,-1.1922189865,0.2618080259,-1.4087541099,-1.1742605112,0.0820434736,-0.1963545807,0.3482749273,-1.3268542734,0.3027960812,-0.3858599829,0.7864860148,-0.9606064337,0.295194778,-0.1055672301,0.543047179,1.1788994905,-0.4671510869,-0.8263487053,-0.5630436898,-0.4179246281,0.4996899193,1.5850462628,1.2015907316,1.6872116237,1.2962374142,-0.365670082,-0.6571323845,-0.7482431888,-0.8915587441,0.1886102135,-0.3962001522,-0.0924981281,0.7228048526,0.1733366935,-0.2359167837,-0.5796650327,0.2759321165,-0.705508471,-0.9930534833,0.3171417687,0.8661319973,-0.7219718341,-0.7901681208,0.4539384324,0.3420031141,0.6335776183,1.3142067662,-0.7040989856,-1.1567855285,0.4756904511,0.0621091835,-0.413096381,0.4845324101,0.4659883497,1.7233721065,1.6185650729,-1.236608807,-0.6348242686,-0.03242493,-0.9924404611,-0.2160792368,0.2000984375,1.174767875,-2.1523906318,-1.3538624357,-1.1757603162,-0.6064657753,1.7314010235,0.649012197,-0.523314065,0.2671252824,-0.7376889958,1.278282108,1.1084488809,-1.1487842332,1.4489103127,-0.6761736626,-0.5849277352,-0.9088919203,-0.3840152173,0.5090742004,-1.1597970218,0.3315468925,2.3129075294,-1.491993982,-1.3438222754,-0.6815375405,-1.1438048131,-0.8375832975,-1.3814633501,0.1883427429,1.4663037796,-0.3623931794,-0.5483059482,-1.2344238685,1.0751871609,0.0338777581,0.0132029343,-1.0896699681,-0.7344220442,0.0331094571,-0.3924307556,0.1492810655,0.3644454929,-1.3073898744,-0.3886079992,0.5647225574,-1.6381076129,-1.3751191971,1.1376613407,1.6546389181,0.2503462587,-1.6243437244,-0.5018853703,0.4976526082,-1.3473325669,0.688589435,-0.62972169,-0.9686166988,0.6559838574,0.8627520122,0.0282534576,0.3568838411,0.349191366,-0.2384634374,-0.8941321415,1.1772292024,1.0900132301,0.7032369199,0.8293404793,-0.6289001021,0.5161339943,-0.8412652151,-0.0147202657,-0.0457877835,0.1931656501,-0.3029891605,0.6059659421,-0.8569188833,-0.413182981,-0.1199737005,-0.4369024867,-0.0886961488,0.6774133196,0.377452768,-0.6400797945,1.5420900231,-0.3383379078,0.7250569542,-0.7131240725,0.3020392438,-0.6454154718,-0.7199917235,-0.6462582202,-0.3379309174,0.1718734246,-0.1963464119,0.0321221854,0.6716711213,-0.9462231071,1.2445127923,0.3983785131,-0.2433173157,-1.5357377829,-0.9293488444,0.1877900036,0.481307768,-1.6367910329,0.2361646919,1.2373425983,1.129079177,0.8546426519,0.1003453881,1.9799223799,-0.5368807153,0.0717675749,1.0627804455,0.7382208184,-0.9041233956,0.2464644072,-0.0301609697,-0.6928999806,-0.3275961574,-0.7579388476,-0.4748416087,-0.8923502077,-0.7601780592,-0.5080134413,-0.2460048972,0.0998759649,-0.9089529267,-0.8901785084,0.7673414071,-0.4838553848,-0.4992918253,0.2702624197,0.8529429142,-0.5651900628,-0.4882837327,1.0651872106,-0.9728368313,1.3267042204,0.3084640647,-0.1873614194,-0.5658148644,-1.0104610681,-1.3012121014,0.2259711419,1.2045438771,0.7395871745,0.2398383474,-1.0887171442,0.2251810188,0.2212471825,1.2383125696,-1.1005715946,-0.1436466341,0.1021876001,0.1794157517,0.1064785591,1.191961842,-0.9379456467,0.8068471423,-0.27060019,0.7211422853,-1.0492920466,-0.2340153977,-0.5426997943,-0.5202257482,0.5415819937,-0.4061586811,1.0072099505,-0.9630859934,-0.1346289607,0.1010347845,0.3918949907,-1.3781022012,0.7024013084,-0.1862282753,-0.9335124546,0.3626102749,1.1963258295,0.3507739266,1.3216001379,2.2373436683,-1.5211131227,0.1495954185,-1.5517968237,-1.1051504123,-0.6678582059,0.9233518302,-0.2369324293,-1.8333974374,-1.0933543587,-1.4607559734,0.8802726102,2.9688268479,0.1823180461,-0.5214528589,-0.0606889855,-0.2534500372,0.3830918051,-0.7599156904,-0.4137757225,0.2447726419,-0.2548129002,0.1926881296,-1.2284506576,1.4887919829,0.6796922214,1.0510066841,-0.433859812,0.9840227404,-1.671732949,-1.4187091258,-1.0962892607,-0.7455251869,1.5522449166,0.7441688951,1.2106844919,-0.7228765301,-0.1282670326,-0.4786572403,-0.3215392165,0.3540199542,-0.9473669368,-1.1256975037,-0.2939072641,0.0542775053,0.1578771793,0.9632702012,-0.037222152,0.2150724588,0.4300637826,1.2913213474,-0.1273570151,0.6374131604,0.5734127448,-1.4908432754,-0.1977090021,1.0012181869,-0.2963656654,0.7940875799,-0.407113876,0.4975805887,0.4350217828,0.4955533916,0.7716929983,0.3261031216,0.3871972035,0.3452548398,0.1936184852,-0.7253600866,-0.5706323674,-0.8766968427,1.2036161837,1.2857609991,0.8394370967,0.9581226604,0.4349712134,0.8959706559,-1.275734438,-0.5985200088,-0.670226911,-0.8046381365,-0.7713158275,-0.5083958586,0.0498636309,0.6586891761,-0.5543311237,-1.0746628718,-0.5697174713,-0.4362664982,0.4573613549,-0.4089313386,-0.5511093204,0.592853676,0.3544631497,0.2617952837,0.5362099,-0.739774746,-0.3462185796,-0.535767256,0.7509797447,-1.1404219334,-0.107485901,-1.0726166856,-0.0385196346,0.6276693742,-0.8453746446,0.8095805758,-0.1469025098,-0.3455957989,0.9163926634,2.3343811002,-0.2021096182,-1.4290449798,0.0744390004,0.1514986012,-1.129875971,0.1641011534,0.61605031,-0.2918413821,1.4260387219,1.0504995256,-1.5388512811,0.2419292537,1.4728988005,0.5596851069,-0.6753128353,0.842927989,2.3275530347,-0.4029521942,-1.6193025383,-0.1870528228,-0.953707198,-0.4544646245,-0.1474488004,-0.41649956,-1.269684552,0.209505315,0.9453503728,0.6894078896,-1.2376623544,0.0218399364,-0.4631608928,0.3600783215,0.2647817269,-0.8671322258,0.8761393619,0.1619474988,-2.59916403,-0.1631108855,0.9167687205,-0.5349215362,-1.4014586346,0.2531957396,1.5922486368,0.0246030753,0.8147543123,0.4410189683,0.0018351987,0.4909657609,-1.7762570939,-0.3155847169,1.6515308171,0.4159808253,0.7119835607,0.3682710949,-0.3429798387,1.4868554908,-0.8187203538,-1.5264731527,0.0503401169,-0.5220744037,0.4920562092,0.3897270925,-0.2876537795,-0.7554113579,0.7645956768,-0.2077522274,-0.3819032794,-0.5922566963,0.5670416677,0.001298397,-0.0224670594,-2.7589792181,0.2743649329,3.0145353148,-0.0534581617,0.6828918501,-1.0866324253,0.5541143957,0.5897802095,-0.2825650273,-2.2989157175,0.2370206115,1.8870659638,-0.1451134005,-3.1725560246,-0.3957249057,0.4156307562,1.3393470052,-0.0833993196,-1.2202938436,1.3436945987,0.2496763421,-2.1900793528,0.2954793341,0.4121877743,0.4048551195,-1.2090287709,1.0989217758,0.8624567487,-0.1559377401,-3.16352946,0.7021188102,-0.1367051311,-0.1281033984,0.0922632844,-0.621426255,-0.1196662422,0.1346473073,-2.4844491952,0.7102251779,0.9384291496,0.9011216393,2.3275168218,-1.0577014571,-2.5194163828,0.3094931352,1.0678862023,0.6372875225,-0.1090225694,2.3282470255,0.0394912261,-2.7132407679,-0.9660175639,0.0647575525,0.9463847978,0.0967333843,-0.7358839531,-0.2826021518,-1.2539189249,-0.4046582509,1.4412273571,0.4477565331,0.7775182169,0.2305652279,0.0778703476,-1.0741071938,0.8143935837,1.7014889554,0.1119123417,-0.0077819115,-0.5452856124,0.3207663611,-0.0611736053,0.5856588558,-0.1142994604,-0.7678924725,0.8172762692,-0.1792357779,-0.9812901156,0.7913418575,-0.3176888096
biasActivation=0,0,1,1
[BASIC:ACTIVATION]
"org.encog.engine.network.activation.ActivationSigmoid"
"org.encog.engine.network.activation.ActivationSigmoid"
"org.encog.engine.network.activation.ActivationSigmoid"
"org.encog.engine.network.activation.ActivationLinear"
